6.967141530112326286e-01
6.173569882881535520e-02
8.476885381006924458e-01
1.723029856408025307e+00
-3.415337472333596081e-02
-3.413695694918053580e-02
1.779212815507391410e+00
9.674347291529088455e-01
-2.694743859349520987e-01
7.425600435859647241e-01
-2.634176928124622452e-01
-2.657297535702568547e-01
4.419622715660341261e-01
-1.713280244657797935e+00
-1.524917832513032812e+00
-3.622875292409726833e-01
-8.128311203344238400e-01
5.142473325952738872e-01
-7.080240755212108272e-01
-1.212303701335291528e+00
1.665648768921554002e+00
-2.577630048653564709e-02
2.675282046879238207e-01
-1.224748186213456824e+00
-3.443827245251826485e-01
3.109225897098660818e-01
-9.509935774223028382e-01
5.756980183456719136e-01
-4.006386899188049688e-01
-9.169374979327676867e-02
-4.017066122293969088e-01
2.052278184508937731e+00
1.865027752620661006e-01
-8.577109289559003980e-01
1.022544912103189096e+00
-1.020843649971022282e+00
4.088635950047554424e-01
-1.759670123879775616e+00
-1.128186048898430549e+00
3.968612358691235298e-01
9.384665799954103882e-01
3.713682811899705061e-01
8.435171761175948302e-02
-1.011036955892887779e-01
-1.278521990367427419e+00
-5.198442083947085735e-01
-2.606387709597874913e-01
1.257122226218915673e+00
5.436182895684613658e-01
-1.563040155362733996e+00
5.240839693947949574e-01
-1.850822804163165247e-01
-4.769220003059587154e-01
8.116762888408679544e-01
1.230999522495950904e+00
1.131280119116198524e+00
-6.392175232226384729e-01
-1.092123758512145715e-01
5.312634314035640237e-01
1.175545127122359146e+00
-2.791742378452899409e-01
1.434102333618289538e-02
-9.063349740060282489e-01
-9.962066240806708439e-01
1.012525822394197972e+00
1.556240028570822886e+00
1.279898784196661643e-01
1.203532897892024112e+00
5.616360250476342131e-01
-4.451197546051242626e-01
5.613956055084139418e-01
1.738036566465969157e+00
1.641739608900484870e-01
1.764643655814006173e+00
-2.419745104089744192e+00
1.021902504375223897e+00
2.870470682381712213e-01
-9.900735046586744970e-02
2.917607765355023086e-01
-1.787568914600892844e+00
-1.967188783751191994e-02
5.571125715117464239e-01
1.677894044741516044e+00
-3.182702182736473762e-01
-6.084936028931875462e-01
-3.017570435845365329e-01
1.115402117702074092e+00
5.287511096596844151e-01
-3.297602037670387953e-01
7.132674331133561640e-01
2.970775493480404261e-01
1.168644990532889283e+00
-5.020530938773524188e-01
-1.276621465977682002e-01
-1.921081531321576219e-01
-1.263514948132118620e+00
4.961202770645760651e-01
4.610552721798893416e-01
2.051134566424608896e-01
-3.458713337514690567e-02
-1.215370742050414288e+00
-2.206453227653590310e-01
-1.427145165267694749e-01
-6.022772692216189494e-01
3.871428833399087610e-02
6.040508568145384061e-01
2.086185901210530158e+00
3.745778128318389966e-01
4.575503907227643774e-01
1.255540842338327967e-01
-1.718771215299041533e+00
1.734861245507831329e-01
2.602302099410264691e-01
2.663242112485286306e+00
7.639035218877487932e-03
5.015473423336125336e-01
1.652882302947566995e-01
-9.686780376195320841e-01
1.342822814515020502e+00
9.519330326867740943e-01
9.910319470430468680e-01
-7.093874547947389697e-01
1.602794310936099142e+00
-1.201851062792280933e+00
7.868570938002703574e-01
2.390455625809978724e+00
-7.905363251306882777e-01
-3.662977296027719043e-01
2.996513650876412305e-01
-3.034756541161992005e-01
-1.350663431066132736e+00
2.685629748060273103e-01
-8.623037137261049256e-01
6.735924306351815938e-01
-7.194242342338030838e-01
1.749934405017539385e+00
-5.832532923362370170e-01
-1.220615162056755687e-01
1.013517217369669821e+00
-1.030864316433955263e+00
4.274599346041294545e-01
1.507142754282428054e+00
-1.407483234561227592e+00
3.846338585323042514e-01
4.598827942484235431e-01
9.818228717773103131e-01
-1.036950710878081994e+00
-1.120456613084276354e+00
7.219415656168977069e-01
4.969846732331860695e-01
4.504928503458765499e-01
5.464482094969757009e-01
-4.800247215784907984e-01
4.322536971610035916e-01
4.930724732986812575e-01
-5.143514180263677460e-01
2.065774511144756520e+00
6.738329209117874807e-01
-9.913034972026486535e-01
8.565536086338296773e-01
-7.746816702273213728e-01
9.870846037424521047e-01
1.358595579007404019e+00
-6.206823183517105047e-01
1.163376129244321877e+00
6.127809269364983269e-01
1.022060159994490069e+00
2.096792982653947313e+00
-4.538811600287048775e-02
-5.537361643574896242e-01
-6.895144296255233396e-01
-6.158102849654383260e-01
1.228982905858958113e-01
5.411519748166438992e-01
4.766907993300190660e-01
1.027183249036023760e+00
2.130018918779070236e-01
1.653534077157316817e+00
-6.465683323795606841e-02
2.920169166589619003e+00
8.256673477650062765e-01
-6.571575564162825955e-01
-8.708924980611123523e-01
6.824724152431853597e-01
-2.346278532585088783e-02
9.140004940920920529e-01
6.732376245735448572e-01
1.271710873431272371e-01
-6.467937180684049103e-01
-1.314847224685864679e+00
-2.465149520670210648e-01
1.056398794323472279e+00
4.140937441302039446e-01
-1.045738778711988060e+00
3.731809258511820104e-01
5.853173797288367952e-01
-6.838574362011329288e-01
3.537251059455279179e-01
2.582087184459999074e-01
-9.429702978306231387e-01
5.577873603482832454e-01
7.607845263682344594e-01
1.283051243175276968e+00
1.253802052034902914e+00
-1.177669367957091096e+00
-7.378250399151227157e-01
7.150352672086597305e-01
7.137859509122088664e-01
7.150476863060479804e-01
4.052731490654720936e+00
7.708905106931669415e-01
1.335565640180598868e+00
1.154001763493202271e+00
8.513912513057979581e-01
-1.152692446403456028e-01
9.589692204932673825e-01
-5.728252145375718474e-01
-3.681860674000886346e-02
-2.853635478291034477e-01
2.818741393863225531e-01
2.514658566673508844e+00
-1.667265192591748102e+00
8.862601903745135346e-01
-1.412715871189651695e+00
-2.719318657894334579e-01
1.288950596967366025e+00
2.642800190954627815e-01
-8.777447779293061636e-01
-5.153037092599681568e-01
8.795977489346757938e-01
-5.303666317171367162e-01
4.164585895819749028e-01
2.455718399038137878e-01
-4.516003476058170762e-01
2.343944089325325830e+00
8.339190223180112937e-01
-1.825142586657607202e+00
3.864543147694276537e-01
-4.617864647683879720e-01
1.052433334796224029e+00
-5.925207384327006999e-01
8.526355853310099708e-02
7.049872789804572104e-01
1.065755194170121545e+00
-1.000296407055776271e+00
-1.345012358409483633e-01
-2.749453111609561629e-01
-4.533292325737118822e-01
1.965454240281096832e+00
6.049817109609555432e-01
-1.060883954335045232e+00
1.117861947054776151e+00
2.322156197012633427e+00
1.232465260551146802e+00
-1.319369965954013457e+00
-2.842340728662513527e-01
1.466911149186622687e+00
-5.076694656187807908e-01
6.438194281462283897e-01
9.746340534293367330e-01
-7.269304715780828818e-01
1.404746439381999168e-01
-3.041267340069072400e+00
-8.243876413342898779e-01
-5.256815139316028951e-02
-1.047783181964849542e+00
1.832411303931635205e+00
-1.230141377960632720e+00
-2.400444866969837499e-01
3.307405772860913529e-01
1.641273289066115471e+00
-1.235862151179439428e+00
1.363163752154959552e+00
2.102330610195870531e-01
-7.815086510479509752e-01
6.621034742632707637e-01
3.990596955734700413e-01
-4.002168771587946705e-01
2.698020849900188978e-01
-1.853135968617601881e-01
3.135173452512480807e-01
8.621306745210466360e-01
1.786016816145352015e+00
-1.037815498826849092e+00
2.333033374656266812e+00
-1.752087799522501932e+00
4.821490496441668827e-02
7.883172064845764826e-01
4.809918677350326632e-01
-4.226995198205937831e-01
-8.122250357275206945e-03
-2.930009346588328123e-01
-3.893647569442115208e-01
1.049602097021024694e+00
5.570154859650473522e-01
-4.929095952606541986e-01
1.099599875433250773e+00
5.072995208766093445e-01
1.012862118838960157e+00
8.296288419236121925e-01
-6.289950109220723284e-01
-3.601810401969695596e-01
9.472936051232618837e-01
8.103702654334647981e-01
1.790984060358518648e-01
3.173273833087820184e-01
1.477664895788424859e+00
-3.915713888358299255e-01
7.470973811700378775e-01
-2.192652433894048958e-03
-1.768120322722027682e-02
1.298776851987190062e+00
1.025416348988029913e+00
1.013509636000638592e+00
1.505478807154329024e+00
2.210038416327590460e-01
8.819529712949638611e-01
-1.102667565934560279e-01
5.241663524884421221e-01
6.985694563231542586e-02
2.969959649927181866e-01
7.951570254369135782e-01
-6.182206832334724567e-01
2.292387275685460413e+00
-8.060173814997020347e-01
-1.014188612787732202e+00
1.358110873500067761e+00
9.916626939629358262e-01
8.241198170521550903e-01
8.283455092642799666e-01
1.877532271530854002e-01
-6.972543714858314701e-01
2.758045581937263457e-01
-4.771617115121116748e-01
1.175119733417751222e+00
5.294261849786136009e-02
-6.254971967925115894e-01
-1.213858416529934314e-01
6.129314542756243434e-01
-3.637245528039746989e-01
-6.222203955664313835e-01
4.436872114919123145e-01
4.449665711087227860e-01
-3.069431753711297506e-01
-2.710383056183227612e-01
4.320499373576363045e-01
-1.248084341497324168e+00
-1.207463774376555277e+00
-5.184442212524360549e-01
-1.344715171184723834e-02
5.109075655980046538e-01
1.675356216949551946e+00
1.057659623202019450e+00
4.006147003657289929e-02
1.809837920973111913e-01
-8.025293646378088841e-01
1.814868640076100770e-01
-8.865863892013831071e-02
5.227185603380894996e-01
-6.272309435523228949e-01
7.193465142411723523e-01
1.732738913002577652e+00
9.123985154314241675e-02
6.017117220989414150e-01
8.901439917111124700e-01
-2.012204718858362495e-01
4.240924818104168104e-01
2.125924007817948658e-01
2.976760985488317024e-01
-5.730097838554664147e-01
2.245101742589427352e-01
6.979982912454497646e-01
1.651143607795041657e+00
1.159270826085206929e+00
2.353182457511556525e+00
-5.673475628880495503e-01
1.072320636720678122e+00
3.833420057383517543e-01
2.389802933217672454e+00
-6.082982853551515134e-01
-6.397218421807759903e-01
-3.993926454440221430e-01
-1.923895724309806932e+00
-3.257550216807610366e-01
-5.591326615536980071e-01
3.503937864762076693e-01
5.417559757771595041e-01
2.076170839215886410e+00
1.150423838186050318e+00
-3.769036556624030809e-01
-6.984146713483578850e-01
6.919191715065057258e-01
-1.120233207020642219e+00
2.031458765854353921e+00
1.379440120721286966e+00
-2.691756521047047879e-01
-1.513134529090877534e+00
1.553872374165412795e+00
8.546015474738212492e-02
1.437816311973461714e+00
-1.394427658794367142e+00
-3.993750229537728624e-01
2.052436997181831813e-01
2.469805937647420735e-01
-2.500654714792436284e-01
8.228499323474987026e-01
-8.676204293825944269e-01
5.762051497870651628e-02
3.202956317118988983e-01
7.144388340587490838e-01
9.116148780888897463e-01
-9.246420918378692733e-01
-1.334114170735622329e+00
1.477676821898509019e+00
5.323140119795917169e-01
-5.484865365565536610e-01
1.751151975522522886e+00
3.156746342928586913e-01
1.379297184063826398e+00
2.675184814101089770e-01
2.260747924881987281e+00
1.955340842443204386e+00
-4.896414847907348822e-02
1.171570950954355483e+00
8.453759495851476125e-01
1.568631557532348619e+00
-7.649234605801045195e-01
8.860514599984392614e-01
1.258424486849587742e+00
-1.558739486423114329e+00
-9.832585126657751307e-01
-1.839232177760100617e+00
-6.940683444455775231e-02
9.175422557959622694e-01
1.702357052096028056e+00
2.740947804197751969e-01
1.828615545571291801e+00
-1.180101458214891430e+00
-1.503382439355154698e+00
1.444523011033812254e-01
5.840654489393073412e-01
1.673052519059068932e-01
-1.867442100039876651e+00
1.108799604872116040e-01
-1.104469500504853263e+00
8.696725488300385276e-01
5.665982460968482792e-01
-7.398797863273551823e-01
-3.138669173366935294e-01
-8.592135218889516146e-01
1.373209027268281202e-01
1.155142320501238329e+00
-7.857260463355437707e-01
7.040465155178443624e-01
-3.302576183724407755e-01
-5.928728322623442182e-01
9.296964004544218396e-02
-8.352423224193741280e-01
-3.536493053471820303e-01
-9.978778925888485141e-01
2.164725132916389239e+00
2.352635519717286294e-01
-4.997255079925855825e-01
4.139799107342220230e-01
8.767195030917018794e-02
-2.096959953322297121e-02
8.141667000434251733e-01
9.575077100473050606e-01
-3.305011476105274570e-01
-3.758182406446800017e-01
-7.505169715164400346e-02
-2.101921164735584657e+00
-1.315191062198552308e+00
1.566874267444524627e+00
1.844967713501283635e+00
-4.903603955637830802e-02
7.765569630557664915e-01
5.112501545435361727e-01
3.278880808455237883e+00
1.319574911434576725e+00
7.208240851923347625e-02
-7.555404406004258000e-01
-1.406446320257572546e+00
4.034636358672231138e-01
-5.563507452843032830e-01
-1.222253709597674209e+00
-4.465728842425265577e-01
-8.815480036143950038e-01
1.887141635072564716e+00
1.081639756949450470e+00
1.920273586833826374e-01
1.679944138890025807e+00
2.773683076476183285e-01
-6.612842013282635989e-01
1.723124077269657217e+00
7.389100436846587350e-01
-8.372461543264564376e-01
9.661321916391824027e-03
-6.756182533847572280e-01
-1.182799730964336105e+00
1.126177547531641343e+00
2.109416640470130666e+00
-1.198567573819141252e+00
7.629692366905709289e-01
-4.506425691218269303e-01
-2.871253837646960405e-01
-3.923939242388691517e-01
-6.639907696798159620e-01
2.485216279448270171e-01
-6.309501164110378202e-01
4.704568257798388276e-01
1.497618905508630582e-01
-3.894804686640973568e-02
-7.075636620415979294e-01
-3.767713305683327296e-01
9.553912258257559742e-01
7.009171876243807109e-01
-7.775552447985509819e-01
2.993323054292258978e-01
9.513871233717889897e-01
-1.469405281121371809e+00
7.433601923799351141e-01
-4.626237589458466748e-01
7.705986685931593971e-01
-5.632591565425169033e-01
-1.604882100664519085e+00
-1.427542437883162707e+00
2.480849466613820054e-01
4.597225017214818799e-01
-7.043166251044086223e-01
8.385924587773738725e-01
-1.461520062268959919e+00
1.339202013526834545e-01
-1.011016199762456713e+00
-4.518361078021591593e-01
2.473986713164140205e-01
-6.604133652839523361e-01
-1.845555442298253412e-01
1.206292809214440487e+00
-3.768918695231487370e-01
1.035692112065141890e+00
-9.297068546576181536e-01
7.298041779152828479e-01
1.641568620657900324e+00
-2.271644500127289135e+00
-5.968952554704767266e-01
7.770721271805400843e-01
-3.045386042992676012e-03
5.711458733713088431e-01
-4.039851867158205656e-01
2.865897874728999262e-01
4.432276460792053396e-02
1.367782061659807313e+00
4.544208433012131287e-01
5.376026620752021312e-01
-2.118769661224673695e-01
-2.876062240724935326e-01
-2.325581878196208985e-01
5.944521423782969105e-01
-2.209844808202629518e-01
4.897748568964129245e-01
2.275400798645438982e+00
1.071124703431692415e+00
-1.260235321678411236e-01
1.401213922163944803e+00
-2.080753730215513797e-01
-1.838124535177853902e+00
-8.080863109174041270e-01
-1.670791921025855720e+00
-1.515134840413086548e-01
2.184183791895517035e-01
1.876437312275282654e+00
5.269273737641626543e-01
-1.910052880886423110e-02
1.029405581183489238e+00
-2.011135309007884953e+00
4.356145581085659746e-01
9.708651938869667930e-01
-1.278586245779841590e+00
1.343754043206929039e+00
5.384964074944140755e-01
-2.152879139008012643e-01
8.327818661062849070e-01
2.470692857804396070e+00
3.818662550584951410e-01
4.482205863003361213e-01
-2.593608995402441053e-01
-6.498443694647917379e-01
1.030335816544245553e+00
-6.560838259088672686e-01
2.715662372193924923e-01
-2.776574467651166667e-01
6.789798257463919295e-01
5.336621052869483517e-01
1.237539944257899149e+00
-3.100163988547470217e-01
-6.987493529337124309e-02
-7.787637157823072975e-01
-2.442932600761115736e-01
5.773004930448522032e-01
9.569886166453518417e-01
-7.221653241776253562e-01
1.069605920105660246e+00
1.555637858804950868e+00
6.134349032237008670e-01
2.076795812558065890e+00
-5.737891991035730666e-01
-1.044654703311417077e+00
-1.578720248904278645e+00
1.696044311489182999e+00
8.543656563540578119e-01
1.444153290895449360e-01
4.799686263198202907e-01
-9.254890472983765548e-01
2.645751979616826510e+00
3.292211819752275392e-01
3.093947946048928865e-01
9.257666238986919094e-01
6.810092317367132386e-01
4.238840242791314106e-01
-5.904744554453118521e-01
6.714683571359957304e-01
2.082024496475033626e+00
1.545420046154977634e+00
1.793186626639396986e+00
-3.112156764311851398e-01
-7.896048202585808085e-01
7.421307990035186375e-02
2.557249122886945947e-01
1.294191518470948488e+00
-1.492464629714819413e+00
1.729550319460613661e+00
4.199210142101059140e-02
-2.268810699474200221e-01
-8.121043752601675436e-01
-1.454856671865769391e+00
1.023170583961914515e+00
2.733179671884038986e-01
-1.089960899741053924e+00
-1.095078772063616146e+00
-1.357846992901282079e-01
1.869021525289392915e+00
-5.959135136360477203e-02
-1.303142953118106240e+00
-4.574306408594430717e-02
-7.272356974767046900e-02
-2.496886642941571477e+00
1.457051334821878041e-01
-3.093453020867795167e-02
8.962063648134184213e-01
2.048956094945345363e+00
1.326565029547757346e+00
-6.888869055483054504e-02
-9.065259087416703832e-01
2.773359803249860533e+00
2.592184340144882970e-01
2.139292919129462123e-01
1.758749128899967373e-01
3.980847607678549283e-01
5.563958807605753898e-02
-3.736620068802362638e-01
-3.468589412403921268e-01
1.672467297840016243e-01
-3.434247711337649611e-01
-5.128457826771644079e-01
3.064302276918968726e-01
-5.497721742085526220e-02
1.703992988582688550e+00
-2.450969808393011817e+00
1.291506851922461729e+00
1.446085192497629013e+00
-1.873390232408149503e+00
-1.426875940803487564e-01
-1.714408659957914471e-01
-1.207511694717821271e+00
-5.778166875908752331e-01
-9.105758454658288148e-01
1.952270443423622659e+00
1.135678393147461218e+00
1.471555094994158708e+00
9.216720640432352063e-01
-9.290517712172292608e-01
-3.245202662797736504e-01
6.893745612279180701e-01
-1.022127808891945433e+00
9.129984301723881313e-01
-4.032539815813501738e-02
-1.748208075495975011e-01
9.109599682034914547e-01
6.442633114860397692e-01
-1.609661658190799094e-01
1.359329803364248024e+00
-8.810633275998973613e-01
8.159356069442638137e-01
7.931012579683838215e-01
-1.095464393139902737e-01
5.261330222421179981e-01
-1.051113576385303006e+00
1.124027019206901068e+00
1.509786355701098204e-02
-3.227230205190395051e-01
1.249009225836889225e+00
-5.043436905427591821e-01
-1.208461296363559700e+00
-1.356629173523903775e+00
8.060099513456395748e-01
-1.080429352496283135e+00
1.954794181984364609e+00
-1.881929407883722094e+00
1.896456368290038164e+00
4.110174672026184473e-01
1.032868881296076236e-01
-3.449190868089497264e-01
5.991361143520708143e-01
1.623652975751516403e-01
1.303301882016521418e+00
3.142276486620396714e-01
3.503017614618776365e-01
-1.636122122138558566e-01
1.430543762789325546e-01
5.078017688920591910e-01
-1.510168392656625613e+00
-1.148185422105713061e+00
9.432640940227150494e-01
3.708654381279418710e-01
1.601666364732087788e-02
2.184339330653931599e-01
5.475817053616710561e-01
-3.397596803093614892e-01
-5.783047254023125916e-01
3.958452550976815365e-01
-7.783727776150319855e-01
6.082527557144719044e-01
-1.502583604237840431e+00
1.229155637325643591e+00
6.725974824130429575e-01
4.560297343138756676e-01
1.182690983945513974e+00
1.865474444462576598e+00
1.214370065018130385e+00
-1.640874231331645339e+00
-1.079576966735701582e+00
-4.248185776956788229e-01
2.260910502108338105e-01
7.176590204691231101e-01
-5.257438131534655223e-01
3.867667644770783619e-01
-5.553829323533225892e-01
-4.115178029919482339e-01
-1.206661096848222314e+00
-7.232332461109043376e-01
-1.151684605616333679e+00
-7.758732529773326725e-01
1.253641796607839476e+00
-7.493988888319429442e-01
2.832382064837390967e+00
6.933179008808891819e-01
3.848361236948739106e-01
-6.583577801812134922e-01
9.003098794089914314e-01
-3.756378262377739197e-01
3.220098146453614363e-01
2.760084538268794851e+00
1.039401002753501391e-01
1.349273326285675756e+00
-5.031764251258874499e-01
1.650115095030383061e-01
1.970800635635509890e+00
-4.269670577877673900e-01
2.012448557996928677e+00
9.077519354554755004e-01
-3.624667758942676232e-01
8.324077390555209011e-01
1.172554449626729944e+00
8.218099622171963770e-01
-1.370224719890456466e+00
-5.271371758248686312e-01
-4.751863555150473428e-02
1.255665708999537111e-01
8.206720975506780480e-01
3.777010009332538720e-01
-1.135344358710101309e+00
5.801978510059632166e-01
8.105857452838232113e-01
7.597904479310397807e-01
1.280780725554621746e+00
1.033922154548904127e+00
6.591800792284366883e-01
1.298342885413529824e-01
-1.460960933515991433e+00
6.296182191325858657e-01
4.076876871631111565e-01
4.715788371953734681e-01
-1.076748575820309473e+00
-8.810565404082624230e-01
1.253152853332903494e+00
1.604448461433449769e-01
8.815006973726244865e-01
2.283183761304611870e-01
2.297561394957451930e-01
1.138283805975997653e+00
-3.160447282173738937e-01
2.961207769409833768e-01
-2.622752887050424642e-01
-2.344962274323155738e-01
-1.091721234686393593e-01
4.221337716337128509e-01
-2.787486216634773029e-01
1.455756125573520743e+00
-6.946073022195038416e-01
1.312835583864097044e-02
-2.397310582741749019e-01
1.646977884353732824e+00
3.965547765115746692e-01
1.231844539468634814e+00
-1.285560373036972015e+00
4.670502658692588516e-01
1.089630795623437010e+00
2.822839892754241964e-01
1.265480375065351160e+00
-3.172884501003721547e-01
1.609347440185579847e+00
2.498898123619250455e+00
-1.628385604396590525e-01
-2.455025214007717782e-01
1.653384477117700868e+00
1.779572145730712318e+00
-3.228600271532682808e-01
-2.201868170958572457e-01
-8.178460886050720191e-02
-1.144450511034277085e+00
-7.186519464841982785e-01
-8.041407667520679148e-01
-5.677975651041284877e-01
1.653151126132188231e-01
4.342147325365207644e-01
1.750500492814076825e+00
-7.983540407387910154e-01
1.184322398476583826e+00
-1.398884422550894513e-02
1.505362903475670477e-01
8.748194921666037072e-01
-9.227220215622986554e-01
5.824097461840506140e-01
3.664522082130561298e-01
6.924512640081490478e-01
4.891686439078181126e-01
2.655300139910894419e+00
-4.377399842513159389e-01
-3.309969550018176387e-01
-4.231405264247643516e-01
-3.554771191602546510e-01
-4.373871273065176868e-01
1.389016531107551744e+00
1.620504247989854818e+00
-3.707462937494762634e-01
-6.323555731042287409e-01
6.714155563864041554e-01
-3.522230442809712314e-01
8.329318177555107283e-01
4.029230208512997180e-01
-1.315744114997231984e+00
1.747505201330061597e+00
1.995877673095521665e+00
-4.127886904843862115e-01
-1.877015599359841413e-01
4.858653907249049775e-01
5.344567899870249494e-01
8.585442726728305107e-01
2.210204538766349813e+00
2.305277250595061389e-02
-5.982972445384537874e-01
-1.179319228014527265e+00
-5.309300399419190075e-01
1.668730271262029163e-01
1.994557863517787633e+00
-3.176112990361714128e-01
4.237879516388984857e-01
1.835771039272479366e-01
1.388393273448083942e+00
2.726932425873621835e+00
-3.308687729203206307e-01
-2.894394425182221231e-01
1.244160877069071969e+00
8.818914896263114755e-01
2.046707325736033756e+00
7.839281853259638666e-01
-1.592920907870595260e-01
7.906548306923093516e-01
1.308703580582907700e+00
1.020482181197364113e+00
7.072740311072978070e-01
1.266674689589153857e+00
1.369295590445672728e+00
1.582158991037527107e+00
8.487098875896426087e-01
3.288191968314566060e-02
3.467136864333228430e-01
1.406508966508356773e+00
-6.169356709872360067e-01
5.686733088729012398e-01
-1.933388123273606651e-01
2.287448229348174877e-01
1.478451862607298661e+00
3.910990680199033509e-01
2.464365481561488214e-01
-1.159856140979919292e+00
9.462535660272206606e-01
8.454841811410753749e-01
2.363254723305460381e+00
-1.077782349530008177e-01
4.191503276639390041e-01
4.493836837107552662e-01
1.777453279763474336e+00
1.047044676130479135e-01
4.790215257703392404e-01
8.078965097165391462e-01
3.866091231563580921e-01
-2.464336145505282571e-01
3.940899928983075950e-01
1.273631749859772011e+00
-8.265152994110602780e-01
3.329696741468760046e-01
-5.001208149391731528e-01
1.395046628924842436e+00
-1.323186904783774764e+00
-3.589218472715883235e-01
5.772118750645208740e-01
1.765524029234340375e+00
1.342497389270121966e-01
-3.551995266931983752e-01
2.081157069440590313e+00
-1.248013900416244049e+00
-1.998805956620081981e+00
6.400144500533324621e-01
-3.020542243526111448e-01
-8.212328171307132774e-01
9.083564472993532757e-01
4.438007137711988404e-01
-3.640786307367283592e-01
-1.080304398670894450e+00
1.072457328280144617e+00
8.502011779586609030e-01
1.008241362206171027e-01
2.046636996047666024e+00
-8.700847663261526144e-01
-1.325525170924738871e+00
-4.919080698812444141e-01
1.544139836445022063e-01
4.433394493226918698e-01
-4.123605785632986076e-02
5.520553965142968034e-01
-1.051539424190444105e+00
1.643764604073259417e+00
1.178488216074312089e-01
1.317295831588127575e+00
5.427253463777041986e-01
6.567532191537839292e-01
7.697672802322039765e-01
6.477085600173149160e-01
8.427227598675439690e-01
1.529152530132431353e+00
3.965211697014701109e-01
9.090037575885123733e-01
1.102643057127732917e-01
1.640117215449472754e+00
-4.763923020592696900e-01
2.000940432910815581e+00
1.598420493556566013e-01
-1.230775102118048192e+00
3.281044149107892882e-01
-4.810516574748808227e-01
1.040643548988724021e+00
-4.526239793023908997e-01
-2.461834332147797011e-01
-1.689540730945531033e+00
-2.523063192490767048e-01
-2.223879326628956488e+00
-1.383902823485723355e+00
9.604146561442974406e-01
9.858001586508322589e-01
6.254575617849646996e-01
-7.669761431292130283e-01
1.522886438580201562e-01
1.963974609094316093e-01
-9.583646891925428069e-01
1.703398301767150569e+00
1.077362290575671455e+00
-2.096417382966392351e-02
2.268858389945307974e-01
4.083828079475524953e-01
-1.841734868424290683e+00
-4.717738252059691662e-02
-4.819842479977985428e-01
-8.016200098949155528e-01
-8.110029288595488328e-02
1.997686526849522526e+00
8.408428612670098001e-01
-3.711789897827967866e-01
7.725827813561585433e-01
